
#include "defines.h"

 static const DTYPE w0[3][3][3][16]={-0.15880002081394195556640625000000, 0.05003090202808380126953125000000, -0.20101958513259887695312500000000, -0.03774916753172874450683593750000, 0.10040459036827087402343750000000, 0.07093030959367752075195312500000, -0.13781562447547912597656250000000, 0.14933696389198303222656250000000, -0.01212509721517562866210937500000, -0.19917523860931396484375000000000, 0.13550047576427459716796875000000, 0.09573083370923995971679687500000, -0.09841807186603546142578125000000, -0.21359322965145111083984375000000, 0.05229672789573669433593750000000, -0.10300575196743011474609375000000, 0.05165263637900352478027343750000, 0.06228892505168914794921875000000, -0.00965398084372282028198242187500, -0.20694418251514434814453125000000, -0.03738807514309883117675781250000, 0.14658163487911224365234375000000, 0.22960336506366729736328125000000, 0.13760595023632049560546875000000, -0.01930991373956203460693359375000, -0.16377250850200653076171875000000, -0.15880921483039855957031250000000, -0.09012465924024581909179687500000, 0.04865068569779396057128906250000, -0.19840939342975616455078125000000, 0.14685933291912078857421875000000, -0.08705471456050872802734375000000, 0.01556615345180034637451171875000, 0.10355097800493240356445312500000, 0.18250818550586700439453125000000, -0.04915025830268859863281250000000, 0.17367544770240783691406250000000, -0.07433357834815979003906250000000, -0.08199942111968994140625000000000, 0.12802004814147949218750000000000, 0.18362899124622344970703125000000, -0.13780918717384338378906250000000, 0.06794149428606033325195312500000, -0.07166782021522521972656250000000, -0.19865424931049346923828125000000, -0.01625142805278301239013671875000, -0.01007102057337760925292968750000, -0.06121582537889480590820312500000, 0.09563620388507843017578125000000, 0.23877874016761779785156250000000, -0.21032203733921051025390625000000, -0.08044770359992980957031250000000, 0.10490202903747558593750000000000, 0.06949263811111450195312500000000, -0.08691110461950302124023437500000, -0.05032359808683395385742187500000, 0.14569798111915588378906250000000, -0.17375464737415313720703125000000, -0.15915378928184509277343750000000, 0.14351660013198852539062500000000, 0.16861324012279510498046875000000, -0.04229702055454254150390625000000, -0.12673430144786834716796875000000, 0.14373885095119476318359375000000, -0.18562333285808563232421875000000, -0.08898848295211791992187500000000, 0.18894429504871368408203125000000, -0.20102599263191223144531250000000, 0.17249579727649688720703125000000, -0.12591940164566040039062500000000, -0.14123713970184326171875000000000, 0.11534529924392700195312500000000, -0.10228291153907775878906250000000, 0.05590840801596641540527343750000, 0.08331083506345748901367187500000, 0.12706485390663146972656250000000, -0.18958529829978942871093750000000, -0.17437678575515747070312500000000, 0.00050612381892278790473937988281, 0.02468547970056533813476562500000, -0.00879753194749355316162109375000, -0.01676608622074127197265625000000, 0.10713623464107513427734375000000, 0.12981037795543670654296875000000, -0.19189222157001495361328125000000, -0.04422387480735778808593750000000, 0.11061356961727142333984375000000, -0.18316201865673065185546875000000, 0.05305310338735580444335937500000, 0.04847411811351776123046875000000, 0.02144991792738437652587890625000, 0.01293992251157760620117187500000, 0.07789695262908935546875000000000, -0.02826732024550437927246093750000, 0.10426478832960128784179687500000, -0.02077806554734706878662109375000, -0.05088522285223007202148437500000, 0.06320057064294815063476562500000, -0.08931797742843627929687500000000, -0.07245289534330368041992187500000, 0.16535995900630950927734375000000, -0.08624635636806488037109375000000, -0.02192268706858158111572265625000, 0.03532064706087112426757812500000, 0.17846196889877319335937500000000, -0.15751072764396667480468750000000, 0.12758997082710266113281250000000, 0.04044364020228385925292968750000, 0.17448878288269042968750000000000, 0.15596643090248107910156250000000, -0.17056190967559814453125000000000, 0.02289739809930324554443359375000, 0.01854393444955348968505859375000, 0.11114507913589477539062500000000, 0.03576497733592987060546875000000, 0.07133047282695770263671875000000, 0.06999064981937408447265625000000, -0.21240104734897613525390625000000, 0.10377481579780578613281250000000, -0.17149257659912109375000000000000, 0.16895930469036102294921875000000, 0.01116614043712615966796875000000, -0.14733372628688812255859375000000, 0.14075951278209686279296875000000, 0.14900316298007965087890625000000, -0.00679870136082172393798828125000, 0.14121654629707336425781250000000, -0.19378274679183959960937500000000, -0.14653472602367401123046875000000, -0.09942882508039474487304687500000, -0.17683467268943786621093750000000, -0.13645750284194946289062500000000, 0.13921028375625610351562500000000, 0.03217389434576034545898437500000, 0.08915141224861145019531250000000, -0.15249246358871459960937500000000, -0.12875185906887054443359375000000, 0.00972329545766115188598632812500, 0.09726793318986892700195312500000, 0.15116220712661743164062500000000, -0.06837656348943710327148437500000, -0.11680904030799865722656250000000, -0.03132840991020202636718750000000, -0.12734174728393554687500000000000, 0.14285372197628021240234375000000, 0.00234869820997118949890136718750, -0.08037942647933959960937500000000, -0.15570974349975585937500000000000, -0.09326411783695220947265625000000, 0.04336527362465858459472656250000, 0.10036431998014450073242187500000, 0.15286932885646820068359375000000, -0.08346844464540481567382812500000, 0.00908229313790798187255859375000, -0.09830997884273529052734375000000, -0.07481789588928222656250000000000, -0.10573338717222213745117187500000, 0.12748348712921142578125000000000, -0.01307508349418640136718750000000, -0.06332617253065109252929687500000, 0.08268808573484420776367187500000, -0.06918670237064361572265625000000, -0.09665308892726898193359375000000, -0.00054703367641195654869079589844, -0.00608580000698566436767578125000, -0.04754227399826049804687500000000, -0.06540211290121078491210937500000, 0.10414717346429824829101562500000, -0.12066742777824401855468750000000, 0.16958759725093841552734375000000, 0.07098923623561859130859375000000, 0.08381693810224533081054687500000, 0.04318217560648918151855468750000, -0.16443404555320739746093750000000, 0.14085499942302703857421875000000, 0.07136988639831542968750000000000, -0.19371993839740753173828125000000, -0.11051055788993835449218750000000, -0.12909041345119476318359375000000, 0.05140021070837974548339843750000, 0.08159242570400238037109375000000, 0.04816109687089920043945312500000, -0.07763472944498062133789062500000, -0.10506442189216613769531250000000, -0.05689145624637603759765625000000, 0.10632856190204620361328125000000, 0.01616696640849113464355468750000, -0.04270081222057342529296875000000, -0.17613416910171508789062500000000, 0.17005760967731475830078125000000, 0.00911458954215049743652343750000, 0.04940574988722801208496093750000, 0.18175674974918365478515625000000, 0.18093782663345336914062500000000, -0.09915387630462646484375000000000, 0.07746486365795135498046875000000, 0.11572249978780746459960937500000, 0.15465787053108215332031250000000, -0.10383082181215286254882812500000, -0.15562330186367034912109375000000, -0.06329888850450515747070312500000, -0.00025209490559063851833343505859, 0.03484055772423744201660156250000, 0.05624740570783615112304687500000, 0.02229713462293148040771484375000, 0.09724366664886474609375000000000, 0.09795835614204406738281250000000, 0.00286968704313039779663085937500, -0.02745052985846996307373046875000, -0.04656125232577323913574218750000, -0.08368648588657379150390625000000, -0.20979043841361999511718750000000, 0.14082303643226623535156250000000, -0.06179464980959892272949218750000, 0.07970372587442398071289062500000, 0.08966908603906631469726562500000, 0.02830464392900466918945312500000, -0.03667774423956871032714843750000, -0.01353800762444734573364257812500, -0.12321024388074874877929687500000, -0.14261844754219055175781250000000, -0.11814466118812561035156250000000, -0.02486497908830642700195312500000, 0.08545587956905364990234375000000, 0.00352866481989622116088867187500, -0.07500449568033218383789062500000, 0.06901928037405014038085937500000, 0.14699405431747436523437500000000, 0.06496506184339523315429687500000, -0.08048047870397567749023437500000, 0.07588809728622436523437500000000, -0.15415914356708526611328125000000, -0.01139659527689218521118164062500, 0.06232371181249618530273437500000, -0.05885182693600654602050781250000, 0.15577334165573120117187500000000, -0.12460125982761383056640625000000, 0.17254960536956787109375000000000, 0.14610993862152099609375000000000, -0.17572632431983947753906250000000, -0.07049123197793960571289062500000, 0.15532159805297851562500000000000, -0.07351267337799072265625000000000, 0.10744107514619827270507812500000, 0.09967917948961257934570312500000, -0.01798103190958499908447265625000, -0.15069894492626190185546875000000, -0.07488191872835159301757812500000, -0.07531196624040603637695312500000, -0.04524331167340278625488281250000, 0.04265485331416130065917968750000, 0.07504624873399734497070312500000, 0.19812944531440734863281250000000, 0.05441515147686004638671875000000, -0.04325124248862266540527343750000, -0.15652127563953399658203125000000, -0.10853898525238037109375000000000, 0.17882756888866424560546875000000, -0.03744222968816757202148437500000, -0.09244659543037414550781250000000, -0.15906058251857757568359375000000, -0.03807236626744270324707031250000, -0.13038101792335510253906250000000, -0.12414315342903137207031250000000, -0.10208155959844589233398437500000, 0.08639366179704666137695312500000, -0.12727056443691253662109375000000, -0.12852765619754791259765625000000, 0.01018015947192907333374023437500, -0.10271815210580825805664062500000, 0.03730951994657516479492187500000, -0.15098085999488830566406250000000, 0.10693522542715072631835937500000, 0.01670879498124122619628906250000, 0.07785678654909133911132812500000, 0.02371025830507278442382812500000, 0.15091177821159362792968750000000, -0.11127802729606628417968750000000, 0.10512673854827880859375000000000, -0.04532976076006889343261718750000, -0.03002178110182285308837890625000, 0.14755316078662872314453125000000, -0.03797488659620285034179687500000, 0.00650767656043171882629394531250, -0.11256460100412368774414062500000, -0.01552080642431974411010742187500, -0.00526810577139258384704589843750, 0.04348858073353767395019531250000, 0.15424367785453796386718750000000, 0.06755647063255310058593750000000, 0.16722179949283599853515625000000, -0.04688515141606330871582031250000, -0.11033561825752258300781250000000, 0.07242264598608016967773437500000, -0.11361071467399597167968750000000, -0.03136159852147102355957031250000, -0.01869196817278861999511718750000, 0.00356980762444436550140380859375, -0.17554260790348052978515625000000, -0.16592733561992645263671875000000, -0.12806259095668792724609375000000, 0.03078924492001533508300781250000, 0.11948855221271514892578125000000, 0.08949030190706253051757812500000, 0.02736235037446022033691406250000, -0.02744890563189983367919921875000, 0.07604707777500152587890625000000, -0.07042109221220016479492187500000, 0.15171118080615997314453125000000, -0.12568928301334381103515625000000, -0.01650180853903293609619140625000, 0.09526269137859344482421875000000, 0.11682992428541183471679687500000, -0.02203091420233249664306640625000, -0.04156383499503135681152343750000, 0.02530677430331707000732421875000, 0.11304230988025665283203125000000, 0.04176471382379531860351562500000, -0.15055188536643981933593750000000, -0.00111219356767833232879638671875, 0.08997083455324172973632812500000, 0.07124221324920654296875000000000, 0.16798715293407440185546875000000, -0.14330236613750457763671875000000, -0.18229104578495025634765625000000, 0.16075482964515686035156250000000, 0.13933090865612030029296875000000, -0.02112193033099174499511718750000, -0.22059239447116851806640625000000, 0.07464742660522460937500000000000, 0.12978811562061309814453125000000, 0.03591945767402648925781250000000, 0.06964754313230514526367187500000, -0.11146152764558792114257812500000, 0.13651822507381439208984375000000, -0.02923903055489063262939453125000, 0.07612494379281997680664062500000, -0.14495770633220672607421875000000, 0.13621921837329864501953125000000, 0.04977947100996971130371093750000, -0.09304580837488174438476562500000, 0.16788382828235626220703125000000, 0.14093245565891265869140625000000, 0.00616776850074529647827148437500, -0.02681053988635540008544921875000, 0.09329666197299957275390625000000, 0.16497020423412322998046875000000, -0.12876223027706146240234375000000, 0.00405747629702091217041015625000, -0.10816930234432220458984375000000, -0.10500311851501464843750000000000, -0.06641052663326263427734375000000, -0.09618735313415527343750000000000, -0.05080799758434295654296875000000, -0.08243089914321899414062500000000, 0.06730202585458755493164062500000, -0.18853810429573059082031250000000, -0.11025211960077285766601562500000, 0.00075223372550681233406066894531, 0.15380914509296417236328125000000, -0.14966914057731628417968750000000, -0.12089074403047561645507812500000, -0.04922712966799736022949218750000, -0.07307487726211547851562500000000, -0.15628798305988311767578125000000, -0.08784935623407363891601562500000, -0.11343473941087722778320312500000, 0.16101105511188507080078125000000, -0.11546798050403594970703125000000, -0.07552839070558547973632812500000, -0.11857327073812484741210937500000, -0.04054944589734077453613281250000, -0.21250046789646148681640625000000, 0.12734179198741912841796875000000, 0.05492357164621353149414062500000, -0.15162670612335205078125000000000, 0.04851070418953895568847656250000, 0.06093655526638031005859375000000, -0.12696537375450134277343750000000, -0.17970861494541168212890625000000, 0.05796628817915916442871093750000, 0.09170654416084289550781250000000, -0.10836898535490036010742187500000, -0.01938190124928951263427734375000, -0.05772908776998519897460937500000, 0.03553891181945800781250000000000, 0.14803834259510040283203125000000, -0.15879134833812713623046875000000, 0.03175117447972297668457031250000, -0.01206360477954149246215820312500, -0.20367223024368286132812500000000, 0.13919544219970703125000000000000, 0.10227148234844207763671875000000, 0.05180684104561805725097656250000, -0.02154763601720333099365234375000, -0.15806131064891815185546875000000, 0.00892611686140298843383789062500, 0.01121247466653585433959960937500, -0.13586826622486114501953125000000, 0.06119151785969734191894531250000, 0.09769062697887420654296875000000, -0.07914862036705017089843750000000, -0.09521079063415527343750000000000, 0.03161634504795074462890625000000, -0.12128707021474838256835937500000, 0.17046029865741729736328125000000, -0.01341857947409152984619140625000, 0.03637101873755455017089843750000, -0.21480597555637359619140625000000, 0.01256158389151096343994140625000, -0.19538459181785583496093750000000, -0.02820017188787460327148437500000, 0.15667764842510223388671875000000, 0.13954578340053558349609375000000, -0.05192874744534492492675781250000, 0.13489677011966705322265625000000, 0.05269113555550575256347656250000, -0.08559382706880569458007812500000, 0.02616403438150882720947265625000, -0.09484584629535675048828125000000, -0.05162413418292999267578125000000, -0.14333517849445343017578125000000, 0.06478177011013031005859375000000, 0.12122739106416702270507812500000, -0.08304653316736221313476562500000, -0.10217961668968200683593750000000, 0.06386712193489074707031250000000, 0.07392465323209762573242187500000, -0.10980341583490371704101562500000, 0.18547479808330535888671875000000, 0.11819287389516830444335937500000, 0.07760072499513626098632812500000, };

 static const DTYPE w1[16]={1.00354969501495361328125000000000, 0.97715967893600463867187500000000, 1.07238900661468505859375000000000, 1.00773394107818603515625000000000, 0.98250788450241088867187500000000, 1.02600038051605224609375000000000, 1.00530529022216796875000000000000, 0.94992035627365112304687500000000, 1.06652617454528808593750000000000, 1.00694286823272705078125000000000, 0.98997855186462402343750000000000, 1.00504958629608154296875000000000, 1.02843427658081054687500000000000, 0.99950647354125976562500000000000, 0.96472138166427612304687500000000, 0.98171269893646240234375000000000, };

 static const DTYPE w2[16]={0.01265270542353391647338867187500, 0.07110128551721572875976562500000, 0.08959890902042388916015625000000, -0.04113936796784400939941406250000, 0.00614522164687514305114746093750, 0.14258944988250732421875000000000, 0.05401336774230003356933593750000, -0.03441856801509857177734375000000, 0.09662534296512603759765625000000, 0.00213486026041209697723388671875, 0.01242966577410697937011718750000, 0.04957781359553337097167968750000, 0.00057370500871911644935607910156, 0.02961100824177265167236328125000, -0.02191996946930885314941406250000, -0.03086857497692108154296875000000, };

 static const DTYPE w3[16]={0.00151626649312674999237060546875, 0.22629602253437042236328125000000, -0.18295124173164367675781250000000, -0.58725869655609130859375000000000, 0.15337364375591278076171875000000, -0.00211154669523239135742187500000, -0.07348249852657318115234375000000, 0.00743701402097940444946289062500, -0.21622160077095031738281250000000, -0.10142759233713150024414062500000, -0.22366410493850708007812500000000, -0.03638000413775444030761718750000, -0.11949775367975234985351562500000, -0.06979412585496902465820312500000, 0.04211188852787017822265625000000, -0.11285863816738128662109375000000, };

 static const DTYPE w4[16]={0.00141872640233486890792846679688, 0.00967204384505748748779296875000, 0.00596342282369732856750488281250, 0.05488239228725433349609375000000, 0.00612899055704474449157714843750, 0.00189149938523769378662109375000, 0.00295666721649467945098876953125, 0.00294877705164253711700439453125, 0.00994852557778358459472656250000, 0.00411408813670277595520019531250, 0.00847684685140848159790039062500, 0.00199302914552390575408935546875, 0.00501839071512222290039062500000, 0.00325314258225262165069580078125, 0.00225678714923560619354248046875, 0.00313285575248301029205322265625, };

 static const DTYPE w5[3][3][16][1]={-0.02943061105906963348388671875000, -0.06743486225605010986328125000000, 0.05529916658997535705566406250000, -0.15080219507217407226562500000000, -0.06123765185475349426269531250000, -0.12582024931907653808593750000000, 0.09532949328422546386718750000000, -0.13949057459831237792968750000000, -0.19147686660289764404296875000000, -0.10591718554496765136718750000000, -0.00880169495940208435058593750000, -0.17189575731754302978515625000000, 0.09573507308959960937500000000000, 0.11783321201801300048828125000000, -0.18701589107513427734375000000000, -0.04147138446569442749023437500000, 0.12252939492464065551757812500000, -0.09468337148427963256835937500000, -0.00013441448390949517488479614258, -0.15711526572704315185546875000000, -0.05958100780844688415527343750000, -0.11144217103719711303710937500000, 0.03513476252555847167968750000000, 0.00346761313267052173614501953125, -0.06428019702434539794921875000000, -0.18797291815280914306640625000000, -0.17925782501697540283203125000000, 0.11425258219242095947265625000000, 0.10704652965068817138671875000000, -0.16501888632774353027343750000000, 0.09998539835214614868164062500000, 0.12754850089550018310546875000000, 0.13919599354267120361328125000000, 0.08112749457359313964843750000000, -0.00240991450846195220947265625000, -0.10987655818462371826171875000000, 0.10325460135936737060546875000000, 0.01725796982645988464355468750000, -0.02100349031388759613037109375000, 0.08338084816932678222656250000000, -0.07893695682287216186523437500000, 0.11931491643190383911132812500000, -0.04121207818388938903808593750000, -0.10877529531717300415039062500000, 0.14823369681835174560546875000000, 0.10705902427434921264648437500000, -0.14847241342067718505859375000000, -0.13913111388683319091796875000000, -0.20668017864227294921875000000000, 0.00563153345137834548950195312500, 0.15500798821449279785156250000000, 0.16674143075942993164062500000000, -0.07961952686309814453125000000000, 0.01995747908949851989746093750000, 0.00718012545257806777954101562500, -0.05636673793196678161621093750000, -0.08556451648473739624023437500000, -0.00372168049216270446777343750000, -0.08739776164293289184570312500000, 0.16679072380065917968750000000000, 0.19769370555877685546875000000000, 0.17774960398674011230468750000000, 0.06580717861652374267578125000000, 0.13290420174598693847656250000000, 0.06697472929954528808593750000000, -0.01350036170333623886108398437500, 0.16131414473056793212890625000000, 0.09833817183971405029296875000000, 0.15669114887714385986328125000000, 0.13318470120429992675781250000000, 0.00852049607783555984497070312500, -0.13079597055912017822265625000000, 0.12787185609340667724609375000000, 0.08126936852931976318359375000000, -0.17954592406749725341796875000000, -0.19240036606788635253906250000000, 0.01493335142731666564941406250000, 0.20140595734119415283203125000000, 0.07709068059921264648437500000000, 0.02184713818132877349853515625000, -0.00615521799772977828979492187500, -0.14674930274486541748046875000000, -0.06789593398571014404296875000000, 0.14918108284473419189453125000000, 0.05525267124176025390625000000000, 0.10514893382787704467773437500000, -0.04561670497059822082519531250000, -0.02896451391279697418212890625000, 0.19721031188964843750000000000000, -0.10772156715393066406250000000000, 0.17012825608253479003906250000000, -0.12844589352607727050781250000000, 0.06890611350536346435546875000000, -0.05167201161384582519531250000000, -0.06935659795999526977539062500000, 0.13070322573184967041015625000000, 0.02739020064473152160644531250000, -0.12317049503326416015625000000000, 0.02077967487275600433349609375000, 0.09115982055664062500000000000000, -0.03981417790055274963378906250000, -0.12992541491985321044921875000000, -0.17109909653663635253906250000000, 0.11237598955631256103515625000000, 0.04300869256258010864257812500000, 0.01528048794716596603393554687500, -0.05546330288052558898925781250000, 0.07268138229846954345703125000000, -0.13124242424964904785156250000000, 0.00659628119319677352905273437500, -0.09460695087909698486328125000000, -0.13874368369579315185546875000000, 0.16261163353919982910156250000000, -0.13983803987503051757812500000000, -0.15305374562740325927734375000000, 0.13960564136505126953125000000000, 0.03616999834775924682617187500000, 0.10019758343696594238281250000000, -0.08682933449745178222656250000000, -0.12370765209197998046875000000000, 0.21230761706829071044921875000000, -0.10044150054454803466796875000000, -0.05688281729817390441894531250000, -0.14422775804996490478515625000000, -0.13942877948284149169921875000000, -0.15434002876281738281250000000000, -0.00598887726664543151855468750000, -0.11553723365068435668945312500000, 0.03997877985239028930664062500000, 0.23833352327346801757812500000000, 0.03429760783910751342773437500000, 0.09840126335620880126953125000000, -0.02251646108925342559814453125000, -0.03415583074092864990234375000000, -0.18351528048515319824218750000000, -0.02604606747627258300781250000000, -0.05469758808612823486328125000000, -0.05006577074527740478515625000000, 0.16579005122184753417968750000000, -0.05905187129974365234375000000000, -0.13471357524394989013671875000000, 0.11156170070171356201171875000000, -0.10198985040187835693359375000000, -0.16095763444900512695312500000000, };

 static const DTYPE w6[1][1][16][16]={0.33244469761848449707031250000000, -0.35526120662689208984375000000000, 0.03916714340448379516601562500000, 0.40020808577537536621093750000000, 0.30630210041999816894531250000000, -0.31544563174247741699218750000000, 0.03039407916367053985595703125000, 0.16643068194389343261718750000000, 0.20134599506855010986328125000000, -0.39211657643318176269531250000000, -0.07116084545850753784179687500000, 0.30302998423576354980468750000000, -0.19466595351696014404296875000000, 0.35540825128555297851562500000000, 0.09329855442047119140625000000000, -0.18410854041576385498046875000000, 0.25905850529670715332031250000000, -0.22104668617248535156250000000000, -0.19499923288822174072265625000000, -0.34418892860412597656250000000000, -0.18702968955039978027343750000000, -0.39188718795776367187500000000000, -0.10404192656278610229492187500000, 0.28403118252754211425781250000000, 0.00987396016716957092285156250000, 0.35745853185653686523437500000000, -0.23610761761665344238281250000000, 0.11485984176397323608398437500000, -0.16902197897434234619140625000000, -0.32334643602371215820312500000000, -0.01963969878852367401123046875000, 0.26923257112503051757812500000000, 0.40350508689880371093750000000000, -0.03235778585076332092285156250000, 0.14122508466243743896484375000000, -0.45541253685951232910156250000000, -0.09335073083639144897460937500000, -0.11716579645872116088867187500000, 0.34277960658073425292968750000000, -0.06485536694526672363281250000000, 0.28665438294410705566406250000000, -0.18594409525394439697265625000000, 0.09509129077196121215820312500000, -0.50217086076736450195312500000000, -0.00448448723182082176208496093750, -0.05664128437638282775878906250000, 0.44399937987327575683593750000000, 0.41229817271232604980468750000000, -0.18516086041927337646484375000000, -0.01590199023485183715820312500000, 0.11170149594545364379882812500000, -0.23573891818523406982421875000000, -0.05591993033885955810546875000000, 0.51557952165603637695312500000000, 0.38496226072311401367187500000000, -0.23003329336643218994140625000000, 0.20961746573448181152343750000000, -0.14881773293018341064453125000000, 0.22086298465728759765625000000000, -0.06205368414521217346191406250000, -0.05413202941417694091796875000000, -0.30015888810157775878906250000000, -0.07706390321254730224609375000000, -0.31392973661422729492187500000000, -0.34652674198150634765625000000000, -0.10129236429929733276367187500000, -0.39543330669403076171875000000000, -0.15392403304576873779296875000000, 0.14763726294040679931640625000000, -0.23157082498073577880859375000000, -0.06366080045700073242187500000000, 0.15406778454780578613281250000000, 0.15283194184303283691406250000000, 0.21173851191997528076171875000000, 0.31550911068916320800781250000000, 0.14256305992603302001953125000000, 0.37314215302467346191406250000000, -0.40902051329612731933593750000000, -0.37159597873687744140625000000000, 0.26453509926795959472656250000000, 0.30679181218147277832031250000000, 0.16906449198722839355468750000000, 0.33883833885192871093750000000000, -0.40903860330581665039062500000000, 0.11996899545192718505859375000000, 0.35595020651817321777343750000000, -0.04583800211548805236816406250000, 0.40237987041473388671875000000000, -0.05096238479018211364746093750000, -0.14303191006183624267578125000000, 0.05723704770207405090332031250000, -0.24766761064529418945312500000000, -0.06305660307407379150390625000000, -0.37299233675003051757812500000000, -0.26001977920532226562500000000000, 0.37441554665565490722656250000000, -0.09457588940858840942382812500000, 0.23013412952423095703125000000000, 0.43488302826881408691406250000000, -0.05434631556272506713867187500000, -0.33713093400001525878906250000000, -0.38249546289443969726562500000000, 0.19073221087455749511718750000000, 0.40024206042289733886718750000000, 0.32574570178985595703125000000000, 0.14538146555423736572265625000000, -0.40379276871681213378906250000000, 0.34509029984474182128906250000000, 0.10381249338388442993164062500000, -0.13598996400833129882812500000000, -0.43160676956176757812500000000000, -0.24167665839195251464843750000000, -0.11428035795688629150390625000000, 0.00426566926762461662292480468750, -0.21772666275501251220703125000000, -0.23976352810859680175781250000000, 0.17249685525894165039062500000000, -0.28590825200080871582031250000000, -0.18360595405101776123046875000000, 0.12858039140701293945312500000000, -0.30042064189910888671875000000000, 0.38697174191474914550781250000000, 0.07890861481428146362304687500000, 0.02763184718787670135498046875000, 0.20973180234432220458984375000000, 0.13769806921482086181640625000000, 0.35753226280212402343750000000000, 0.13540317118167877197265625000000, -0.36100363731384277343750000000000, 0.05217596888542175292968750000000, 0.10294234752655029296875000000000, -0.12022566050291061401367187500000, -0.10546606779098510742187500000000, 0.07986187934875488281250000000000, -0.17381890118122100830078125000000, 0.06638091802597045898437500000000, 0.15709090232849121093750000000000, 0.12922734022140502929687500000000, 0.32346123456954956054687500000000, -0.13785034418106079101562500000000, -0.00464786402881145477294921875000, 0.21821577847003936767578125000000, 0.01946504041552543640136718750000, 0.12404933571815490722656250000000, -0.01525945961475372314453125000000, 0.00039486368768848478794097900391, 0.30970668792724609375000000000000, -0.06238662078976631164550781250000, -0.27614590525627136230468750000000, -0.15097354352474212646484375000000, -0.03563915193080902099609375000000, -0.10152147710323333740234375000000, -0.33631277084350585937500000000000, 0.15359197556972503662109375000000, 0.43083482980728149414062500000000, -0.34689947962760925292968750000000, 0.01966204494237899780273437500000, 0.33233758807182312011718750000000, 0.16148778796195983886718750000000, -0.24580059945583343505859375000000, 0.06978167593479156494140625000000, -0.26142916083335876464843750000000, 0.21225252747535705566406250000000, 0.01795528270304203033447265625000, -0.09178911894559860229492187500000, -0.42804571986198425292968750000000, -0.33943390846252441406250000000000, 0.21502164006233215332031250000000, 0.24835544824600219726562500000000, -0.17938213050365447998046875000000, 0.34880271553993225097656250000000, 0.01928319968283176422119140625000, 0.15347808599472045898437500000000, -0.19874902069568634033203125000000, 0.18187747895717620849609375000000, 0.10874516516923904418945312500000, 0.32851743698120117187500000000000, 0.03416891023516654968261718750000, 0.00458572106435894966125488281250, 0.16102229058742523193359375000000, 0.20212964713573455810546875000000, 0.05221308395266532897949218750000, 0.40900945663452148437500000000000, 0.50044339895248413085937500000000, 0.41946953535079956054687500000000, 0.41400879621505737304687500000000, 0.07015943527221679687500000000000, -0.20023117959499359130859375000000, 0.29355913400650024414062500000000, 0.30846136808395385742187500000000, -0.20781563222408294677734375000000, 0.04646500200033187866210937500000, 0.16195292770862579345703125000000, -0.20690007507801055908203125000000, -0.33913701772689819335937500000000, 0.10760062932968139648437500000000, 0.34093934297561645507812500000000, 0.16307070851325988769531250000000, -0.05834715813398361206054687500000, -0.38407820463180541992187500000000, 0.32540515065193176269531250000000, 0.00766035541892051696777343750000, 0.14899413287639617919921875000000, -0.23190966248512268066406250000000, 0.37158364057540893554687500000000, -0.09571602195501327514648437500000, -0.36786752939224243164062500000000, -0.36911582946777343750000000000000, 0.25280439853668212890625000000000, -0.44193416833877563476562500000000, 0.17154341936111450195312500000000, 0.01178995519876480102539062500000, 0.48020619153976440429687500000000, -0.18868184089660644531250000000000, 0.13141912221908569335937500000000, 0.23875054717063903808593750000000, 0.15540558099746704101562500000000, -0.29752635955810546875000000000000, 0.15363898873329162597656250000000, -0.22688576579093933105468750000000, 0.26133480668067932128906250000000, -0.02969224564731121063232421875000, -0.11250265687704086303710937500000, -0.20642735064029693603515625000000, -0.01476248167455196380615234375000, 0.07839972525835037231445312500000, 0.42095336318016052246093750000000, -0.30808535218238830566406250000000, -0.03530113771557807922363281250000, 0.39731687307357788085937500000000, -0.19334548711776733398437500000000, -0.43268957734107971191406250000000, -0.37978312373161315917968750000000, 0.35633486509323120117187500000000, 0.31956854462623596191406250000000, 0.29246386885643005371093750000000, 0.03809534758329391479492187500000, 0.13465963304042816162109375000000, -0.21924357116222381591796875000000, 0.16768276691436767578125000000000, -0.13092720508575439453125000000000, 0.34731173515319824218750000000000, -0.38525006175041198730468750000000, 0.23494236171245574951171875000000, -0.20758451521396636962890625000000, -0.39020210504531860351562500000000, -0.15738938748836517333984375000000, -0.24260413646697998046875000000000, -0.08233998715877532958984375000000, 0.26897352933883666992187500000000, -0.39048075675964355468750000000000, -0.26858595013618469238281250000000, -0.12616200745105743408203125000000, -0.24512043595314025878906250000000, 0.17517007887363433837890625000000, -0.31040179729461669921875000000000, };

 static const DTYPE w7[16]={0.98879480361938476562500000000000, 0.98039376735687255859375000000000, 1.01362323760986328125000000000000, 0.99484640359878540039062500000000, 0.98755788803100585937500000000000, 1.01396107673645019531250000000000, 0.99901366233825683593750000000000, 1.00810086727142333984375000000000, 1.01665401458740234375000000000000, 1.03075981140136718750000000000000, 0.97878611087799072265625000000000, 1.00551223754882812500000000000000, 1.00198268890380859375000000000000, 0.98792052268981933593750000000000, 1.00703966617584228515625000000000, 0.99545294046401977539062500000000, };

 static const DTYPE w8[16]={0.07759324461221694946289062500000, 0.01205777190625667572021484375000, 0.08437409251928329467773437500000, 0.00080040853936225175857543945312, -0.00233862176537513732910156250000, -0.03286114335060119628906250000000, -0.01330287661403417587280273437500, 0.09485017508268356323242187500000, 0.01324077788740396499633789062500, 0.08052059262990951538085937500000, -0.04331723228096961975097656250000, -0.02426720969378948211669921875000, -0.02299082279205322265625000000000, 0.00441633537411689758300781250000, 0.05110044777393341064453125000000, 0.03686594963073730468750000000000, };

 static const DTYPE w9[16]={-0.00489563541486859321594238281250, -0.07475906610488891601562500000000, -0.07054314762353897094726562500000, 0.02799662016332149505615234375000, 0.13397066295146942138671875000000, 0.13648267090320587158203125000000, 0.08453259617090225219726562500000, -0.09587958455085754394531250000000, 0.07183142751455307006835937500000, -0.21509566903114318847656250000000, 0.02915178425610065460205078125000, -0.07158799469470977783203125000000, -0.01548377703875303268432617187500, -0.02925576642155647277832031250000, 0.00024344063422176986932754516602, -0.04966959729790687561035156250000, };

 static const DTYPE w10[16]={0.02590615116059780120849609375000, 0.01988156884908676147460937500000, 0.02855702303349971771240234375000, 0.04165793955326080322265625000000, 0.03185087814927101135253906250000, 0.05758381262421607971191406250000, 0.02058597654104232788085937500000, 0.03189813345670700073242187500000, 0.02127208001911640167236328125000, 0.03183043375611305236816406250000, 0.01215123571455478668212890625000, 0.02389846928417682647705078125000, 0.01035476010292768478393554687500, 0.02366469241678714752197265625000, 0.03002355620265007019042968750000, 0.01810726523399353027343750000000, };

 static const DTYPE w11[3][3][16][1]={0.02729156240820884704589843750000, -0.10022872686386108398437500000000, -0.14069738984107971191406250000000, -0.10640285909175872802734375000000, -0.06196497380733489990234375000000, 0.01386362593621015548706054687500, 0.04015934839844703674316406250000, -0.08693975210189819335937500000000, 0.02064325846731662750244140625000, -0.06507776677608489990234375000000, 0.06288517266511917114257812500000, -0.04691273719072341918945312500000, 0.06067186221480369567871093750000, -0.06590569764375686645507812500000, 0.03505792096257209777832031250000, -0.07042196393013000488281250000000, 0.14278221130371093750000000000000, 0.18175199627876281738281250000000, -0.11403297632932662963867187500000, -0.07112648338079452514648437500000, -0.14115872979164123535156250000000, -0.03084370493888854980468750000000, 0.09459191560745239257812500000000, 0.17284828424453735351562500000000, -0.05159913003444671630859375000000, -0.22803896665573120117187500000000, -0.02243064157664775848388671875000, 0.03750795871019363403320312500000, -0.01727048493921756744384765625000, 0.00308467494323849678039550781250, 0.18784266710281372070312500000000, 0.03034934401512145996093750000000, 0.09688478708267211914062500000000, 0.18468455970287322998046875000000, -0.13886703550815582275390625000000, -0.02243700437247753143310546875000, -0.08449243754148483276367187500000, -0.09608579427003860473632812500000, -0.16045276820659637451171875000000, 0.07113961130380630493164062500000, -0.17560961842536926269531250000000, -0.08456945419311523437500000000000, -0.01307429280132055282592773437500, -0.12176916003227233886718750000000, 0.08711162209510803222656250000000, -0.13979953527450561523437500000000, 0.14778527617454528808593750000000, 0.22467088699340820312500000000000, 0.13483782112598419189453125000000, 0.25456383824348449707031250000000, -0.22318144142627716064453125000000, -0.14925149083137512207031250000000, 0.01948015391826629638671875000000, 0.07291401922702789306640625000000, 0.04590026661753654479980468750000, 0.01387059316039085388183593750000, -0.06148659065365791320800781250000, -0.24154549837112426757812500000000, -0.06259498745203018188476562500000, -0.00092996656894683837890625000000, -0.02140048705041408538818359375000, 0.01261604391038417816162109375000, 0.02591913565993309020996093750000, 0.00471980683505535125732421875000, 0.23806490004062652587890625000000, -0.09796847403049468994140625000000, 0.01077530160546302795410156250000, 0.10942188650369644165039062500000, -0.10305441915988922119140625000000, 0.17253427207469940185546875000000, 0.12677738070487976074218750000000, -0.16196015477180480957031250000000, -0.11675453931093215942382812500000, -0.22405575215816497802734375000000, 0.05946017056703567504882812500000, -0.27365338802337646484375000000000, 0.00169198261573910713195800781250, -0.13999427855014801025390625000000, 0.16537460684776306152343750000000, 0.15173299610614776611328125000000, 0.12613354623317718505859375000000, -0.10990750044584274291992187500000, -0.04782777279615402221679687500000, 0.14421391487121582031250000000000, 0.01976859755814075469970703125000, 0.23216326534748077392578125000000, 0.04377262666821479797363281250000, -0.14172956347465515136718750000000, 0.04277340695261955261230468750000, -0.01679760776460170745849609375000, -0.04696074873208999633789062500000, -0.08850991725921630859375000000000, -0.10544177889823913574218750000000, -0.06679882109165191650390625000000, 0.06708096712827682495117187500000, -0.04201708361506462097167968750000, 0.08038123697042465209960937500000, -0.16175565123558044433593750000000, 0.13988703489303588867187500000000, 0.18491110205650329589843750000000, 0.02449386194348335266113281250000, 0.07234378159046173095703125000000, 0.19761396944522857666015625000000, 0.06985549628734588623046875000000, 0.18086187541484832763671875000000, 0.11913477629423141479492187500000, -0.20421171188354492187500000000000, -0.13624353706836700439453125000000, -0.14206138253211975097656250000000, 0.09212259203195571899414062500000, -0.07561901956796646118164062500000, 0.22227026522159576416015625000000, -0.04354919120669364929199218750000, -0.04055950790643692016601562500000, -0.12218450754880905151367187500000, 0.09264760464429855346679687500000, 0.13151359558105468750000000000000, 0.12753213942050933837890625000000, -0.09136447310447692871093750000000, -0.22117580473423004150390625000000, 0.05723378807306289672851562500000, 0.06556963175535202026367187500000, -0.20491582155227661132812500000000, -0.04267488420009613037109375000000, -0.17304015159606933593750000000000, -0.08631389588117599487304687500000, -0.08652451634407043457031250000000, 0.19752311706542968750000000000000, 0.08530809730291366577148437500000, 0.12920902669429779052734375000000, 0.10758423060178756713867187500000, 0.16421794891357421875000000000000, -0.01087229046970605850219726562500, -0.04159609600901603698730468750000, -0.22384011745452880859375000000000, -0.11615395545959472656250000000000, -0.02407062239944934844970703125000, -0.01604809612035751342773437500000, -0.04812584817409515380859375000000, 0.00163577555213123559951782226562, -0.08427663892507553100585937500000, -0.10449215024709701538085937500000, 0.05104949325323104858398437500000, -0.13628695905208587646484375000000, };

 static const DTYPE w12[1][1][16][16]={0.37918251752853393554687500000000, 0.32330191135406494140625000000000, -0.01138952374458312988281250000000, 0.09701107442378997802734375000000, -0.36670419573783874511718750000000, -0.17681838572025299072265625000000, -0.11568494141101837158203125000000, -0.25193113088607788085937500000000, -0.18323211371898651123046875000000, -0.00171708059497177600860595703125, -0.35781857371330261230468750000000, -0.36431869864463806152343750000000, 0.27525019645690917968750000000000, -0.09494777768850326538085937500000, -0.08004946261644363403320312500000, 0.08318009972572326660156250000000, 0.22313220798969268798828125000000, -0.28068310022354125976562500000000, 0.50915539264678955078125000000000, -0.02237435244023799896240234375000, 0.08040866255760192871093750000000, 0.03032013587653636932373046875000, 0.13228553533554077148437500000000, -0.16075304150581359863281250000000, 0.33683601021766662597656250000000, 0.18148328363895416259765625000000, 0.12448746711015701293945312500000, -0.51445335149765014648437500000000, 0.43317109346389770507812500000000, 0.26076331734657287597656250000000, -0.05721028521656990051269531250000, 0.03148109838366508483886718750000, 0.01836712099611759185791015625000, -0.37810492515563964843750000000000, 0.22998806834220886230468750000000, -0.07754839211702346801757812500000, -0.32326576113700866699218750000000, 0.14220036566257476806640625000000, -0.25265148282051086425781250000000, 0.15244248509407043457031250000000, 0.06885854899883270263671875000000, 0.17728103697299957275390625000000, 0.36461061239242553710937500000000, 0.12953223288059234619140625000000, -0.49572041630744934082031250000000, -0.16619306802749633789062500000000, -0.09539073705673217773437500000000, -0.22840957343578338623046875000000, 0.30104076862335205078125000000000, 0.26504176855087280273437500000000, -0.16915072500705718994140625000000, -0.06367126107215881347656250000000, 0.18362149596214294433593750000000, -0.33080559968948364257812500000000, -0.20345000922679901123046875000000, -0.21869173645973205566406250000000, 0.21746285259723663330078125000000, 0.09869566559791564941406250000000, -0.26120236515998840332031250000000, 0.03561672568321228027343750000000, 0.41177791357040405273437500000000, -0.44208127260208129882812500000000, -0.14561720192432403564453125000000, -0.10371187329292297363281250000000, 0.03749656304717063903808593750000, -0.00118802941869944334030151367188, 0.25329881906509399414062500000000, -0.33633372187614440917968750000000, -0.08177483081817626953125000000000, -0.34898874163627624511718750000000, 0.40247881412506103515625000000000, 0.03431301936507225036621093750000, 0.59390151500701904296875000000000, 0.04286165535449981689453125000000, -0.30742174386978149414062500000000, 0.08107975870370864868164062500000, -0.09874057024717330932617187500000, 0.10587478429079055786132812500000, -0.33609876036643981933593750000000, -0.03245746344327926635742187500000, 0.12736490368843078613281250000000, -0.26100432872772216796875000000000, -0.36128631234169006347656250000000, -0.03711463138461112976074218750000, -0.02481281943619251251220703125000, 0.24077971279621124267578125000000, 0.00717155728489160537719726562500, 0.19358760118484497070312500000000, -0.16104850172996520996093750000000, -0.25708448886871337890625000000000, -0.40624400973320007324218750000000, 0.32785248756408691406250000000000, -0.17157742381095886230468750000000, 0.25639167428016662597656250000000, 0.07776254415512084960937500000000, -0.20938771963119506835937500000000, -0.22048583626747131347656250000000, -0.33335191011428833007812500000000, -0.38262540102005004882812500000000, -0.42000690102577209472656250000000, -0.22245606780052185058593750000000, -0.49364584684371948242187500000000, 0.29656603932380676269531250000000, -0.47116625308990478515625000000000, 0.29643127322196960449218750000000, 0.32314589619636535644531250000000, 0.49600234627723693847656250000000, -0.07566519081592559814453125000000, 0.25682863593101501464843750000000, 0.05384214222431182861328125000000, 0.08428776264190673828125000000000, 0.06174700334668159484863281250000, 0.17538516223430633544921875000000, -0.03845531120896339416503906250000, -0.23380294442176818847656250000000, -0.52457666397094726562500000000000, -0.05513421818614006042480468750000, 0.27244177460670471191406250000000, -0.36849671602249145507812500000000, 0.32998460531234741210937500000000, -0.34072557091712951660156250000000, -0.22209773957729339599609375000000, -0.41772761940956115722656250000000, -0.15817509591579437255859375000000, -0.18173031508922576904296875000000, -0.00423810118809342384338378906250, 0.37552335858345031738281250000000, 0.15660573542118072509765625000000, -0.31724086403846740722656250000000, -0.38640928268432617187500000000000, -0.35303404927253723144531250000000, 0.17785432934761047363281250000000, 0.50694531202316284179687500000000, -0.27250084280967712402343750000000, 0.35907506942749023437500000000000, 0.10537898540496826171875000000000, 0.31817165017127990722656250000000, -0.03704458475112915039062500000000, 0.16610184311866760253906250000000, 0.10245127975940704345703125000000, -0.27193740010261535644531250000000, 0.02226288057863712310791015625000, -0.17125809192657470703125000000000, 0.10414059460163116455078125000000, 0.16177691519260406494140625000000, 0.26670724153518676757812500000000, 0.43370124697685241699218750000000, 0.46116977930068969726562500000000, -0.19136558473110198974609375000000, 0.47659796476364135742187500000000, -0.11910226196050643920898437500000, -0.36823084950447082519531250000000, 0.21867990493774414062500000000000, 0.47723570466041564941406250000000, -0.07063715159893035888671875000000, 0.57035088539123535156250000000000, 0.31331214308738708496093750000000, 0.06243941560387611389160156250000, 0.20785096287727355957031250000000, 0.04009735584259033203125000000000, 0.37520921230316162109375000000000, -0.33440151810646057128906250000000, 0.03242276608943939208984375000000, 0.36333447694778442382812500000000, -0.12477175891399383544921875000000, -0.01610346697270870208740234375000, 0.04219803214073181152343750000000, -0.35384470224380493164062500000000, 0.00322684017010033130645751953125, 0.05060244351625442504882812500000, -0.01964887790381908416748046875000, -0.13944026827812194824218750000000, -0.03708798810839653015136718750000, -0.25957798957824707031250000000000, -0.11159344762563705444335937500000, -0.20533102750778198242187500000000, -0.00527674425393342971801757812500, -0.01412345003336668014526367187500, -0.31542444229125976562500000000000, -0.10170830041170120239257812500000, 0.18814010918140411376953125000000, -0.17852759361267089843750000000000, 0.18350626528263092041015625000000, -0.21334207057952880859375000000000, -0.22779810428619384765625000000000, -0.13097980618476867675781250000000, 0.03495582565665245056152343750000, -0.18204280734062194824218750000000, -0.20720644295215606689453125000000, -0.35632416605949401855468750000000, -0.64829224348068237304687500000000, -0.31114536523818969726562500000000, -0.18362538516521453857421875000000, -0.04987751692533493041992187500000, 0.28175464272499084472656250000000, -0.04469008371233940124511718750000, -0.00807650946080684661865234375000, 0.38492232561111450195312500000000, -0.26951429247856140136718750000000, 0.24875195324420928955078125000000, -0.02711932361125946044921875000000, -0.09711845219135284423828125000000, -0.36880522966384887695312500000000, 0.35769733786582946777343750000000, -0.34651061892509460449218750000000, 0.13596685230731964111328125000000, 0.26772332191467285156250000000000, 0.08219579607248306274414062500000, 0.02451702393591403961181640625000, -0.43521767854690551757812500000000, -0.11174963414669036865234375000000, -0.19398166239261627197265625000000, 0.29998975992202758789062500000000, -0.38919177651405334472656250000000, -0.26474016904830932617187500000000, 0.01029543764889240264892578125000, -0.07231993228197097778320312500000, 0.10984022915363311767578125000000, -0.29245200753211975097656250000000, -0.16828265786170959472656250000000, 0.32017368078231811523437500000000, -0.20761357247829437255859375000000, -0.20927901566028594970703125000000, -0.23977251350879669189453125000000, -0.27189844846725463867187500000000, -0.12744887173175811767578125000000, -0.17210602760314941406250000000000, -0.12589906156063079833984375000000, -0.21526440978050231933593750000000, -0.18792192637920379638671875000000, -0.10940099507570266723632812500000, -0.05490469187498092651367187500000, -0.20245401561260223388671875000000, -0.03774208202958106994628906250000, -0.01712188497185707092285156250000, 0.51644402742385864257812500000000, 0.12650482356548309326171875000000, 0.05284215137362480163574218750000, -0.09386682510375976562500000000000, -0.53887015581130981445312500000000, -0.09855189174413681030273437500000, 0.15350243449211120605468750000000, 0.15135437250137329101562500000000, 0.47260656952857971191406250000000, 0.01748835667967796325683593750000, 0.08855404704809188842773437500000, 0.28256672620773315429687500000000, -0.31708624958992004394531250000000, 0.43731233477592468261718750000000, -0.07602018862962722778320312500000, 0.21826831996440887451171875000000, 0.05034272000193595886230468750000, 0.08305093646049499511718750000000, -0.09608880430459976196289062500000, -0.30373945832252502441406250000000, -0.46470791101455688476562500000000, };

 static const DTYPE w13[16]={0.98943662643432617187500000000000, 0.95594042539596557617187500000000, 1.02030336856842041015625000000000, 0.95144218206405639648437500000000, 0.92848157882690429687500000000000, 1.04340124130249023437500000000000, 1.00305473804473876953125000000000, 1.03849697113037109375000000000000, 0.83813720941543579101562500000000, 0.97029066085815429687500000000000, 0.93359994888305664062500000000000, 1.19784402847290039062500000000000, 0.97114342451095581054687500000000, 1.02064740657806396484375000000000, 1.00939440727233886718750000000000, 1.02665841579437255859375000000000, };

 static const DTYPE w14[16]={-0.05845686793327331542968750000000, 0.16335493326187133789062500000000, 0.33357015252113342285156250000000, 0.04497865587472915649414062500000, -0.02496907301247119903564453125000, 0.14239308238029479980468750000000, 0.04302082583308219909667968750000, 0.14217434823513031005859375000000, -0.10936893522739410400390625000000, 0.00873693916946649551391601562500, -0.00497257709503173828125000000000, 0.35462918877601623535156250000000, 0.01082348823547363281250000000000, 0.04771741107106208801269531250000, -0.00908030383288860321044921875000, 0.09112210571765899658203125000000, };

 static const DTYPE w15[16]={0.00628485577180981636047363281250, 0.17218144237995147705078125000000, -0.11386961489915847778320312500000, 0.10718487948179244995117187500000, -0.05968091636896133422851562500000, -0.15036830306053161621093750000000, 0.13352629542350769042968750000000, -0.11231732368469238281250000000000, 0.03744117543101310729980468750000, -0.12060115486383438110351562500000, -0.00461901957169175148010253906250, -0.07056698203086853027343750000000, 0.22791552543640136718750000000000, 0.06529247015714645385742187500000, -0.06949736922979354858398437500000, -0.11397168040275573730468750000000, };

 static const DTYPE w16[16]={0.08251035213470458984375000000000, 0.20471619069576263427734375000000, 0.03523612394928932189941406250000, 0.05397105962038040161132812500000, 0.05847502499818801879882812500000, 0.13103486597537994384765625000000, 0.04291600733995437622070312500000, 0.09282173216342926025390625000000, 0.08668568730354309082031250000000, 0.02919105812907218933105468750000, 0.10856220126152038574218750000000, 0.11167584359645843505859375000000, 0.14682516455650329589843750000000, 0.04952484741806983947753906250000, 0.11183243244886398315429687500000, 0.15722814202308654785156250000000, };

 static const DTYPE w17[3][3][16][1]={-0.18091754615306854248046875000000, 0.13912202417850494384765625000000, 0.11565640568733215332031250000000, 0.06950446963310241699218750000000, -0.06488650292158126831054687500000, -0.08216222375631332397460937500000, 0.15721249580383300781250000000000, -0.05737674236297607421875000000000, 0.09751524776220321655273437500000, -0.09651009738445281982421875000000, -0.09715045988559722900390625000000, 0.16013248264789581298828125000000, -0.18450658023357391357421875000000, 0.11674700677394866943359375000000, 0.07152219116687774658203125000000, -0.10345108807086944580078125000000, -0.13882325589656829833984375000000, -0.04578638076782226562500000000000, -0.18938907980918884277343750000000, 0.13632433116436004638671875000000, 0.09452873468399047851562500000000, -0.05072409659624099731445312500000, 0.01669447682797908782958984375000, 0.14008308947086334228515625000000, 0.11748620122671127319335937500000, -0.11855638772249221801757812500000, -0.02775837481021881103515625000000, 0.23323427140712738037109375000000, 0.01006171293556690216064453125000, 0.19297511875629425048828125000000, 0.03718791157007217407226562500000, -0.07048368453979492187500000000000, 0.01881586760282516479492187500000, 0.08808737993240356445312500000000, -0.09937275946140289306640625000000, -0.03363839909434318542480468750000, -0.12362498044967651367187500000000, -0.17291562259197235107421875000000, -0.18765671551227569580078125000000, 0.16397993266582489013671875000000, -0.06278431415557861328125000000000, 0.16592700779438018798828125000000, -0.13627211749553680419921875000000, -0.13048441708087921142578125000000, -0.02116495184600353240966796875000, -0.07425234466791152954101562500000, 0.12485888600349426269531250000000, 0.03284324705600738525390625000000, -0.02865156717598438262939453125000, 0.22925736010074615478515625000000, -0.31505605578422546386718750000000, 0.08077772706747055053710937500000, -0.13506917655467987060546875000000, 0.16105511784553527832031250000000, -0.06505198031663894653320312500000, 0.06893123686313629150390625000000, -0.16129751503467559814453125000000, 0.09346576035022735595703125000000, -0.21941442787647247314453125000000, 0.17023310065269470214843750000000, 0.26885756850242614746093750000000, 0.06021772325038909912109375000000, -0.16049021482467651367187500000000, 0.01630948483943939208984375000000, 0.00871605426073074340820312500000, 0.03614946454763412475585937500000, 0.08996078372001647949218750000000, -0.02641320601105690002441406250000, 0.08054955303668975830078125000000, 0.19786281883716583251953125000000, -0.00384920695796608924865722656250, 0.02972597628831863403320312500000, -0.08997026085853576660156250000000, 0.03897445648908615112304687500000, 0.15533578395843505859375000000000, -0.00408141268417239189147949218750, -0.08013736456632614135742187500000, -0.19776897132396697998046875000000, 0.13079383969306945800781250000000, 0.23757547140121459960937500000000, -0.06008573248982429504394531250000, -0.18792143464088439941406250000000, 0.04998271167278289794921875000000, -0.11274208873510360717773437500000, 0.07553572952747344970703125000000, -0.14138159155845642089843750000000, -0.14881087839603424072265625000000, 0.11262414604425430297851562500000, 0.10870604962110519409179687500000, -0.12958724796772003173828125000000, 0.15600827336311340332031250000000, -0.17302680015563964843750000000000, -0.04590329527854919433593750000000, 0.11926659941673278808593750000000, 0.16244885325431823730468750000000, 0.20202423632144927978515625000000, 0.09337124973535537719726562500000, -0.14869894087314605712890625000000, -0.06438311934471130371093750000000, -0.07065093517303466796875000000000, -0.01375296898186206817626953125000, 0.00033099035499617457389831542969, -0.14412383735179901123046875000000, -0.04635569080710411071777343750000, 0.07560300081968307495117187500000, -0.00879070814698934555053710937500, 0.08880057185888290405273437500000, -0.17090421915054321289062500000000, 0.11951228976249694824218750000000, -0.21669030189514160156250000000000, 0.09119451045989990234375000000000, -0.01887527480721473693847656250000, 0.25199049711227416992187500000000, -0.18302103877067565917968750000000, 0.11608926206827163696289062500000, -0.13756161928176879882812500000000, -0.10760308802127838134765625000000, -0.09777838736772537231445312500000, -0.16866692900657653808593750000000, -0.07524824887514114379882812500000, 0.08487966656684875488281250000000, 0.08949388563632965087890625000000, 0.01547354832291603088378906250000, -0.21172446012496948242187500000000, -0.01536413747817277908325195312500, -0.05544493347406387329101562500000, -0.02464601211249828338623046875000, 0.17124459147453308105468750000000, 0.20038954913616180419921875000000, -0.14381963014602661132812500000000, 0.14572869241237640380859375000000, 0.14440819621086120605468750000000, 0.01691249012947082519531250000000, 0.20245106518268585205078125000000, 0.20282979309558868408203125000000, -0.07335184514522552490234375000000, -0.02180213108658790588378906250000, -0.07702197134494781494140625000000, -0.11800245940685272216796875000000, 0.15398401021957397460937500000000, 0.00840120390057563781738281250000, -0.14271670579910278320312500000000, -0.12561120092868804931640625000000, 0.21380068361759185791015625000000, };

 static const DTYPE w18[1][1][16][16]={0.32104122638702392578125000000000, -0.40016946196556091308593750000000, 0.19576199352741241455078125000000, 0.30266195535659790039062500000000, 0.24364706873893737792968750000000, -0.28252625465393066406250000000000, 0.21658326685428619384765625000000, 0.28814345598220825195312500000000, -0.10643237829208374023437500000000, -0.31198474764823913574218750000000, -0.15144933760166168212890625000000, 0.31031787395477294921875000000000, -0.16788724064826965332031250000000, 0.15512174367904663085937500000000, -0.03698715940117835998535156250000, -0.42857885360717773437500000000000, -0.12473771721124649047851562500000, 0.52115935087203979492187500000000, 0.29683157801628112792968750000000, 0.35958993434906005859375000000000, -0.33473572134971618652343750000000, 0.04927065595984458923339843750000, 0.36892476677894592285156250000000, 0.27279037237167358398437500000000, -0.28935766220092773437500000000000, 0.03991233184933662414550781250000, 0.26445016264915466308593750000000, -0.31957253813743591308593750000000, -0.33908551931381225585937500000000, -0.45035278797149658203125000000000, -0.33434033393859863281250000000000, -0.27801689505577087402343750000000, 0.34093993902206420898437500000000, -0.08952219039201736450195312500000, 0.10182560235261917114257812500000, 0.02360032871365547180175781250000, -0.12952323257923126220703125000000, -0.05941240862011909484863281250000, 0.04592127725481986999511718750000, -0.08917398005723953247070312500000, 0.30366185307502746582031250000000, 0.32188266515731811523437500000000, -0.06645623594522476196289062500000, 0.05836589634418487548828125000000, -0.38235616683959960937500000000000, -0.35793915390968322753906250000000, -0.07457754760980606079101562500000, -0.49287307262420654296875000000000, -0.05049454420804977416992187500000, -0.02383713610470294952392578125000, -0.04756246507167816162109375000000, 0.01326994039118289947509765625000, -0.31231167912483215332031250000000, -0.22480082511901855468750000000000, -0.08396701514720916748046875000000, -0.08160496503114700317382812500000, 0.14057780802249908447265625000000, -0.33481109142303466796875000000000, -0.23707582056522369384765625000000, 0.04718598723411560058593750000000, -0.03800470009446144104003906250000, -0.02925520949065685272216796875000, -0.13338011503219604492187500000000, 0.35711658000946044921875000000000, 0.12738189101219177246093750000000, -0.01743537001311779022216796875000, -0.24339488148689270019531250000000, -0.07715994119644165039062500000000, -0.40298193693161010742187500000000, -0.13972528278827667236328125000000, -0.16400316357612609863281250000000, 0.27048367261886596679687500000000, 0.21361963450908660888671875000000, -0.13905462622642517089843750000000, 0.35346084833145141601562500000000, -0.00062491139397025108337402343750, 0.56382292509078979492187500000000, 0.03730678185820579528808593750000, 0.20199309289455413818359375000000, -0.37115094065666198730468750000000, -0.00839850492775440216064453125000, -0.13230165839195251464843750000000, 0.07818424701690673828125000000000, 0.20272043347358703613281250000000, -0.29645916819572448730468750000000, 0.35456460714340209960937500000000, -0.21423690021038055419921875000000, 0.45700150728225708007812500000000, 0.05684604868292808532714843750000, -0.34538871049880981445312500000000, 0.30818602442741394042968750000000, -0.01172352209687232971191406250000, -0.20608025789260864257812500000000, -0.09668248891830444335937500000000, -0.28280502557754516601562500000000, -0.13757120072841644287109375000000, 0.29876849055290222167968750000000, -0.02788391336798667907714843750000, -0.14712272584438323974609375000000, -0.40522477030754089355468750000000, 0.09117848426103591918945312500000, -0.13148546218872070312500000000000, 0.05300214886665344238281250000000, -0.30502790212631225585937500000000, 0.38878333568572998046875000000000, 0.18290692567825317382812500000000, 0.37435907125473022460937500000000, 0.25871023535728454589843750000000, 0.00940678082406520843505859375000, -0.05363491550087928771972656250000, -0.16640184819698333740234375000000, -0.09955185651779174804687500000000, -0.29104289412498474121093750000000, 0.25935658812522888183593750000000, 0.11196651309728622436523437500000, -0.14918661117553710937500000000000, 0.18228718638420104980468750000000, 0.11078278720378875732421875000000, 0.39826044440269470214843750000000, -0.30898305773735046386718750000000, -0.39878967404365539550781250000000, -0.34282636642456054687500000000000, -0.22523707151412963867187500000000, -0.17692779004573822021484375000000, 0.18423953652381896972656250000000, -0.29567280411720275878906250000000, 0.48829540610313415527343750000000, -0.14606553316116333007812500000000, -0.23665136098861694335937500000000, 0.26951554417610168457031250000000, -0.02871755138039588928222656250000, 0.31774652004241943359375000000000, -0.13574999570846557617187500000000, 0.24487259984016418457031250000000, -0.26424193382263183593750000000000, 0.27682730555534362792968750000000, -0.33750611543655395507812500000000, 0.42796400189399719238281250000000, -0.24145907163619995117187500000000, 0.43553748726844787597656250000000, 0.16340671479701995849609375000000, -0.37650525569915771484375000000000, 0.09149380773305892944335937500000, 0.08399838954210281372070312500000, -0.29056918621063232421875000000000, -0.30309110879898071289062500000000, 0.26868313550949096679687500000000, -0.04874668270349502563476562500000, 0.23771433532238006591796875000000, 0.16968914866447448730468750000000, -0.30353039503097534179687500000000, -0.39663720130920410156250000000000, 0.06880768388509750366210937500000, -0.23994071781635284423828125000000, -0.03178796172142028808593750000000, -0.13933846354484558105468750000000, 0.11397209018468856811523437500000, -0.04526757448911666870117187500000, 0.40694886445999145507812500000000, 0.40010601282119750976562500000000, 0.12561364471912384033203125000000, -0.08956419676542282104492187500000, 0.20967155694961547851562500000000, -0.07297389209270477294921875000000, 0.02036366611719131469726562500000, -0.12329143285751342773437500000000, 0.07605227082967758178710937500000, 0.41821655631065368652343750000000, 0.32895499467849731445312500000000, 0.26513117551803588867187500000000, -0.07991028577089309692382812500000, 0.36790123581886291503906250000000, 0.27333450317382812500000000000000, -0.39209479093551635742187500000000, -0.27334630489349365234375000000000, -0.05402677506208419799804687500000, -0.28894472122192382812500000000000, -0.24016498029232025146484375000000, -0.37832337617874145507812500000000, -0.13078832626342773437500000000000, -0.31776577234268188476562500000000, -0.05106889083981513977050781250000, -0.54859226942062377929687500000000, 0.72507888078689575195312500000000, -0.21908400952816009521484375000000, -0.52777737379074096679687500000000, -0.32561320066452026367187500000000, 0.19431935250759124755859375000000, -0.05271667614579200744628906250000, 0.07084599137306213378906250000000, -0.14974506199359893798828125000000, -0.24988882243633270263671875000000, -0.21285989880561828613281250000000, 0.41679865121841430664062500000000, 0.13065195083618164062500000000000, -0.08408912271261215209960937500000, -0.06302089989185333251953125000000, -0.30067795515060424804687500000000, -0.25224378705024719238281250000000, 0.18379399180412292480468750000000, 0.21812741458415985107421875000000, -0.00163222569972276687622070312500, -0.27319946885108947753906250000000, 0.18817935883998870849609375000000, -0.10291946679353713989257812500000, -0.34380522370338439941406250000000, 0.12508091330528259277343750000000, -0.13153682649135589599609375000000, -0.08500864356756210327148437500000, -0.03253185749053955078125000000000, 0.21230939030647277832031250000000, -0.25700399279594421386718750000000, -0.30507043004035949707031250000000, 0.19874760508537292480468750000000, 0.08309900015592575073242187500000, -0.32138031721115112304687500000000, 0.41552296280860900878906250000000, 0.25801467895507812500000000000000, -0.26385396718978881835937500000000, -0.01818610727787017822265625000000, -0.03345354273915290832519531250000, 0.26909837126731872558593750000000, 0.42291817069053649902343750000000, 0.33020034432411193847656250000000, 0.36540627479553222656250000000000, 0.04203806817531585693359375000000, -0.15653222799301147460937500000000, 0.40290045738220214843750000000000, -0.25373384356498718261718750000000, 0.32302740216255187988281250000000, 0.41134011745452880859375000000000, 0.01774681359529495239257812500000, -0.33600360155105590820312500000000, 0.07174739241600036621093750000000, -0.40420472621917724609375000000000, 0.00142947759013622999191284179688, 0.35335296392440795898437500000000, 0.40684035420417785644531250000000, 0.36452013254165649414062500000000, 0.04061817005276679992675781250000, 0.29335969686508178710937500000000, -0.47457975149154663085937500000000, -0.14199675619602203369140625000000, 0.10453530400991439819335937500000, -0.12016351521015167236328125000000, -0.12052581459283828735351562500000, -0.16152830421924591064453125000000, -0.12542262673377990722656250000000, 0.05520860850811004638671875000000, 0.06325937062501907348632812500000, -0.34387052059173583984375000000000, 0.52142179012298583984375000000000, 0.39144587516784667968750000000000, 0.28753226995468139648437500000000, -0.32105365395545959472656250000000, 0.30890890955924987792968750000000, };

 static const DTYPE w19[16]={0.99506270885467529296875000000000, 1.02969455718994140625000000000000, 0.97364920377731323242187500000000, 0.98219549655914306640625000000000, 1.01146399974822998046875000000000, 1.08568799495697021484375000000000, 0.95644521713256835937500000000000, 1.07500064373016357421875000000000, 1.07649397850036621093750000000000, 0.98950082063674926757812500000000, 0.92217737436294555664062500000000, 1.00893735885620117187500000000000, 0.93765610456466674804687500000000, 0.93014401197433471679687500000000, 0.98521804809570312500000000000000, 1.02203178405761718750000000000000, };

 static const DTYPE w20[16]={-0.02861907519400119781494140625000, 0.17990610003471374511718750000000, -0.10756170749664306640625000000000, 0.01839665137231349945068359375000, 0.10885259509086608886718750000000, -0.21382446587085723876953125000000, -0.05436721444129943847656250000000, -0.06717613339424133300781250000000, 0.05717695876955986022949218750000, -0.32664999365806579589843750000000, -0.04873091727495193481445312500000, 0.06062467023730278015136718750000, 0.00938651710748672485351562500000, 0.02121246792376041412353515625000, -0.01625129766762256622314453125000, 0.05350811034440994262695312500000, };

 static const DTYPE w21[16]={0.02100668102502822875976562500000, -0.09950317442417144775390625000000, -0.05585941672325134277343750000000, 0.09747990220785140991210937500000, 0.02249021269381046295166015625000, 0.01343700103461742401123046875000, -0.00430478481575846672058105468750, -0.02018987946212291717529296875000, -0.14617070555686950683593750000000, -0.08634846657514572143554687500000, -0.18602506816387176513671875000000, 0.09807188063859939575195312500000, 0.12914341688156127929687500000000, 0.11636209487915039062500000000000, 0.00920450780540704727172851562500, 0.10256004333496093750000000000000, };

 static const DTYPE w22[16]={0.07494670152664184570312500000000, 0.15786270797252655029296875000000, 0.03146797791123390197753906250000, 0.02406517229974269866943359375000, 0.03842027485370635986328125000000, 0.03320870548486709594726562500000, 0.05130495503544807434082031250000, 0.04590747505426406860351562500000, 0.02648709528148174285888671875000, 0.04766814038157463073730468750000, 0.12613776326179504394531250000000, 0.14477464556694030761718750000000, 0.09151890128850936889648437500000, 0.09025428444147109985351562500000, 0.06141746789216995239257812500000, 0.05098639801144599914550781250000, };

 static const DTYPE w23[3][3][16][1]={0.19286194443702697753906250000000, -0.03601752594113349914550781250000, -0.20139664411544799804687500000000, 0.05192682147026062011718750000000, -0.10678753256797790527343750000000, 0.09907294064760208129882812500000, -0.10750946402549743652343750000000, -0.10896502435207366943359375000000, 0.10819325596094131469726562500000, -0.10974054038524627685546875000000, 0.04317730292677879333496093750000, 0.10921391844749450683593750000000, 0.11753918975591659545898437500000, 0.09737180173397064208984375000000, -0.12057361006736755371093750000000, 0.14164841175079345703125000000000, 0.14929793775081634521484375000000, -0.16586665809154510498046875000000, 0.06556767225265502929687500000000, -0.07420393079519271850585937500000, 0.19499522447586059570312500000000, 0.04253001511096954345703125000000, 0.16565451025962829589843750000000, 0.11411267518997192382812500000000, 0.13236199319362640380859375000000, 0.14215648174285888671875000000000, 0.08262275159358978271484375000000, 0.05850660428404808044433593750000, 0.15199306607246398925781250000000, -0.02239479310810565948486328125000, -0.09884022176265716552734375000000, -0.07061869651079177856445312500000, 0.06433717161417007446289062500000, -0.08992892503738403320312500000000, -0.04158636555075645446777343750000, 0.00755466101691126823425292968750, 0.00521911820396780967712402343750, -0.19241856038570404052734375000000, 0.06578582525253295898437500000000, 0.01168938912451267242431640625000, 0.10052865743637084960937500000000, 0.20151683688163757324218750000000, 0.02193033881485462188720703125000, -0.18249516189098358154296875000000, 0.08980907499790191650390625000000, 0.04549195617437362670898437500000, -0.00882001873105764389038085937500, -0.06628605723381042480468750000000, 0.10827389359474182128906250000000, 0.12272965908050537109375000000000, -0.11632617563009262084960937500000, 0.15700002014636993408203125000000, 0.19076333940029144287109375000000, 0.16601441800594329833984375000000, 0.20737282931804656982421875000000, 0.17401014268398284912109375000000, 0.11313650757074356079101562500000, 0.16250966489315032958984375000000, 0.09214229881763458251953125000000, 0.20170870423316955566406250000000, 0.12693652510643005371093750000000, 0.08712515234947204589843750000000, -0.14081810414791107177734375000000, -0.04224800318479537963867187500000, -0.02325760200619697570800781250000, -0.20137868821620941162109375000000, -0.18994359672069549560546875000000, -0.15878109633922576904296875000000, 0.01191561203449964523315429687500, 0.25475057959556579589843750000000, 0.02179115638136863708496093750000, 0.12131952494382858276367187500000, 0.09434742480516433715820312500000, 0.20325857400894165039062500000000, -0.02320956625044345855712890625000, -0.04282280430197715759277343750000, -0.06739647686481475830078125000000, 0.00524861877784132957458496093750, -0.12096641957759857177734375000000, 0.14394727349281311035156250000000, 0.01926090009510517120361328125000, -0.25520908832550048828125000000000, -0.02694527804851531982421875000000, -0.07220946252346038818359375000000, 0.13244372606277465820312500000000, 0.03726488351821899414062500000000, -0.06014623120427131652832031250000, 0.10990829765796661376953125000000, -0.05346474051475524902343750000000, 0.18443892896175384521484375000000, 0.16269284486770629882812500000000, -0.09140748530626296997070312500000, -0.07560548186302185058593750000000, -0.05496722087264060974121093750000, -0.07214483618736267089843750000000, -0.06585015356540679931640625000000, -0.15287660062313079833984375000000, -0.10239342600107192993164062500000, 0.03066067397594451904296875000000, -0.05306598916649818420410156250000, 0.24595987796783447265625000000000, 0.03036157786846160888671875000000, 0.06164846569299697875976562500000, 0.16644728183746337890625000000000, -0.15179772675037384033203125000000, 0.16449826955795288085937500000000, -0.00983072072267532348632812500000, 0.16852022707462310791015625000000, -0.07915993034839630126953125000000, -0.09153204411268234252929687500000, -0.10017975419759750366210937500000, 0.15048998594284057617187500000000, -0.06682296097278594970703125000000, 0.01441758591681718826293945312500, -0.02971375547349452972412109375000, -0.11679267883300781250000000000000, 0.11000545322895050048828125000000, 0.16546374559402465820312500000000, 0.08269225060939788818359375000000, 0.12437614053487777709960937500000, -0.17449866235256195068359375000000, 0.17640294134616851806640625000000, 0.07004785537719726562500000000000, 0.00774919521063566207885742187500, -0.07433514297008514404296875000000, 0.12511861324310302734375000000000, -0.10984592884778976440429687500000, 0.15001492202281951904296875000000, -0.16771425306797027587890625000000, -0.12440250813961029052734375000000, 0.20646442472934722900390625000000, -0.07249540835618972778320312500000, 0.11683570593595504760742187500000, 0.22183373570442199707031250000000, 0.08136989176273345947265625000000, 0.23452410101890563964843750000000, -0.15638838708400726318359375000000, 0.11791320145130157470703125000000, -0.13599675893783569335937500000000, 0.08969205617904663085937500000000, -0.04248995706439018249511718750000, -0.21368490159511566162109375000000, 0.05697950348258018493652343750000, -0.28765127062797546386718750000000, };

 static const DTYPE w24[1][1][16][32]={-0.07319501042366027832031250000000, -0.25057348608970642089843750000000, 0.09571387618780136108398437500000, 0.01333393342792987823486328125000, 0.33649408817291259765625000000000, 0.15595215559005737304687500000000, 0.22721059620380401611328125000000, -0.38077273964881896972656250000000, 0.13766548037528991699218750000000, 0.22679446637630462646484375000000, -0.02587916888296604156494140625000, 0.22619728744029998779296875000000, -0.04193324223160743713378906250000, 0.19719418883323669433593750000000, 0.07299923151731491088867187500000, -0.04218763485550880432128906250000, -0.12516209483146667480468750000000, -0.14327743649482727050781250000000, 0.17261996865272521972656250000000, 0.27403897047042846679687500000000, 0.27286103367805480957031250000000, 0.20925547182559967041015625000000, -0.16886311769485473632812500000000, -0.08715794980525970458984375000000, 0.26630860567092895507812500000000, 0.15626367926597595214843750000000, -0.07990301400423049926757812500000, 0.28872069716453552246093750000000, 0.28551056981086730957031250000000, -0.19957880675792694091796875000000, 0.22589248418807983398437500000000, 0.32885956764221191406250000000000, -0.08494269102811813354492187500000, 0.04434942454099655151367187500000, -0.35213246941566467285156250000000, 0.06311582773923873901367187500000, 0.36467760801315307617187500000000, -0.00854160916060209274291992187500, 0.09526561945676803588867187500000, 0.31755536794662475585937500000000, -0.08818938583135604858398437500000, 0.19636663794517517089843750000000, -0.21999406814575195312500000000000, 0.23099334537982940673828125000000, -0.32283946871757507324218750000000, -0.50441437959671020507812500000000, 0.37638330459594726562500000000000, -0.19328784942626953125000000000000, -0.44712001085281372070312500000000, 0.21745830774307250976562500000000, -0.31689640879631042480468750000000, -0.18283188343048095703125000000000, -0.18816585838794708251953125000000, -0.20217424631118774414062500000000, 0.18307659029960632324218750000000, 0.10874520987272262573242187500000, 0.21516330540180206298828125000000, 0.00670188665390014648437500000000, 0.05469736456871032714843750000000, -0.38151437044143676757812500000000, 0.09586787223815917968750000000000, 0.32940587401390075683593750000000, -0.22727499902248382568359375000000, -0.02057057805359363555908203125000, -0.21384283900260925292968750000000, -0.24176897108554840087890625000000, -0.11738511174917221069335937500000, 0.21808367967605590820312500000000, 0.07495953887701034545898437500000, 0.46773907542228698730468750000000, 0.00802375748753547668457031250000, -0.16751681268215179443359375000000, 0.28611028194427490234375000000000, -0.48087659478187561035156250000000, -0.20394302904605865478515625000000, 0.17845703661441802978515625000000, 0.15255558490753173828125000000000, 0.04475024342536926269531250000000, -0.13678850233554840087890625000000, -0.17726257443428039550781250000000, -0.24779623746871948242187500000000, 0.16024911403656005859375000000000, -0.17662872374057769775390625000000, -0.36040744185447692871093750000000, -0.28137794137001037597656250000000, 0.11888880282640457153320312500000, -0.26852068305015563964843750000000, 0.01804507337510585784912109375000, -0.22531028091907501220703125000000, -0.22203065454959869384765625000000, 0.06549687683582305908203125000000, -0.00774069037288427352905273437500, 0.27415591478347778320312500000000, 0.18345126509666442871093750000000, -0.10696398466825485229492187500000, 0.25309425592422485351562500000000, 0.17793011665344238281250000000000, -0.26506838202476501464843750000000, 0.04701517894864082336425781250000, -0.36851018667221069335937500000000, -0.06207001209259033203125000000000, -0.16694879531860351562500000000000, 0.06977152079343795776367187500000, 0.20286108553409576416015625000000, -0.03002812713384628295898437500000, 0.05619333684444427490234375000000, -0.18537896871566772460937500000000, 0.10812781006097793579101562500000, -0.01935839839279651641845703125000, -0.12099056690931320190429687500000, -0.13434870541095733642578125000000, -0.08934400230646133422851562500000, 0.22583335638046264648437500000000, -0.05321757867932319641113281250000, 0.24605712294578552246093750000000, -0.12589745223522186279296875000000, -0.00857553351670503616333007812500, 0.36694353818893432617187500000000, 0.16886916756629943847656250000000, 0.19477036595344543457031250000000, 0.16187910735607147216796875000000, -0.35219141840934753417968750000000, -0.14160794019699096679687500000000, -0.30724185705184936523437500000000, -0.03703773021697998046875000000000, -0.03553759306669235229492187500000, -0.27893847227096557617187500000000, 0.23247940838336944580078125000000, -0.26164114475250244140625000000000, 0.12302736937999725341796875000000, 0.08297745883464813232421875000000, 0.02182205207645893096923828125000, -0.18512882292270660400390625000000, -0.23146209120750427246093750000000, 0.03017724677920341491699218750000, -0.07550831884145736694335937500000, 0.04581383988261222839355468750000, -0.09655356407165527343750000000000, 0.06420833617448806762695312500000, -0.21759532392024993896484375000000, -0.16652752459049224853515625000000, -0.10896840691566467285156250000000, -0.06909294426441192626953125000000, 0.45161929726600646972656250000000, 0.11280892789363861083984375000000, -0.07625198364257812500000000000000, -0.18609087169170379638671875000000, -0.14421263337135314941406250000000, 0.09892085939645767211914062500000, 0.02282443270087242126464843750000, -0.22344306111335754394531250000000, -0.36148822307586669921875000000000, 0.09172957390546798706054687500000, 0.07441824674606323242187500000000, -0.06389782577753067016601562500000, 0.07299718260765075683593750000000, 0.26908448338508605957031250000000, -0.32251504063606262207031250000000, -0.16779015958309173583984375000000, -0.04608755186200141906738281250000, -0.33265528082847595214843750000000, -0.37226271629333496093750000000000, 0.14221136271953582763671875000000, 0.31605583429336547851562500000000, 0.44199761748313903808593750000000, -0.13285781443119049072265625000000, 0.28914552927017211914062500000000, -0.19284079968929290771484375000000, 0.12389805912971496582031250000000, 0.25119417905807495117187500000000, 0.39908441901206970214843750000000, -0.17663207650184631347656250000000, -0.28333285450935363769531250000000, -0.27704665064811706542968750000000, 0.19327664375305175781250000000000, 0.01693986356258392333984375000000, -0.05342714488506317138671875000000, -0.34858250617980957031250000000000, -0.05592113360762596130371093750000, -0.28672927618026733398437500000000, -0.33616855740547180175781250000000, -0.44468107819557189941406250000000, 0.09577170759439468383789062500000, 0.33486756682395935058593750000000, 0.02164625748991966247558593750000, 0.12536732852458953857421875000000, -0.07758127897977828979492187500000, -0.25247758626937866210937500000000, 0.25965625047683715820312500000000, 0.06235688179731369018554687500000, 0.32615938782691955566406250000000, 0.32070556282997131347656250000000, -0.16303217411041259765625000000000, -0.34520897269248962402343750000000, 0.02149995602667331695556640625000, 0.02744880877435207366943359375000, -0.01819817349314689636230468750000, 0.06811134517192840576171875000000, 0.15672278404235839843750000000000, 0.05910363793373107910156250000000, 0.26462158560752868652343750000000, 0.27090746164321899414062500000000, -0.11809124052524566650390625000000, 0.31780767440795898437500000000000, -0.27981206774711608886718750000000, 0.00724464794620871543884277343750, 0.24855889379978179931640625000000, -0.05277871340513229370117187500000, 0.09544352442026138305664062500000, -0.02659511007368564605712890625000, 0.02958415634930133819580078125000, -0.08605431765317916870117187500000, -0.00524120731279253959655761718750, -0.35203412175178527832031250000000, 0.15588673949241638183593750000000, 0.05321997404098510742187500000000, 0.37023681402206420898437500000000, -0.25511023402214050292968750000000, -0.26101133227348327636718750000000, 0.28973171114921569824218750000000, -0.36529314517974853515625000000000, -0.10551668703556060791015625000000, 0.23842723667621612548828125000000, -0.02645258046686649322509765625000, 0.22242838144302368164062500000000, -0.27527469396591186523437500000000, 0.03980500623583793640136718750000, -0.17389665544033050537109375000000, -0.05028820410370826721191406250000, 0.11152623593807220458984375000000, -0.11856853961944580078125000000000, -0.05263231322169303894042968750000, 0.02323587611317634582519531250000, 0.23264721035957336425781250000000, 0.22998417913913726806640625000000, 0.26325783133506774902343750000000, -0.22738727927207946777343750000000, 0.03071823529899120330810546875000, -0.19656027853488922119140625000000, 0.27637544274330139160156250000000, 0.17149110138416290283203125000000, 0.08866149932146072387695312500000, -0.17044514417648315429687500000000, -0.21096940338611602783203125000000, 0.25219452381134033203125000000000, -0.17859815061092376708984375000000, 0.08889028429985046386718750000000, -0.25740492343902587890625000000000, 0.33053553104400634765625000000000, 0.07955259829759597778320312500000, 0.20837073028087615966796875000000, -0.25606933236122131347656250000000, 0.31412893533706665039062500000000, -0.09301432967185974121093750000000, 0.39258605241775512695312500000000, 0.31289359927177429199218750000000, 0.00364086730405688285827636718750, 0.14705720543861389160156250000000, -0.24911649525165557861328125000000, -0.01876588538289070129394531250000, 0.24355141818523406982421875000000, -0.03601732105016708374023437500000, -0.24556340277194976806640625000000, 0.04159077256917953491210937500000, 0.17050680518150329589843750000000, 0.44673168659210205078125000000000, 0.37594568729400634765625000000000, -0.31923002004623413085937500000000, 0.19766364991664886474609375000000, -0.09730378538370132446289062500000, 0.05350314453244209289550781250000, -0.05205952376127243041992187500000, -0.14054746925830841064453125000000, 0.01033959072083234786987304687500, 0.10924845188856124877929687500000, 0.05795864388346672058105468750000, -0.25842162966728210449218750000000, -0.01559090521186590194702148437500, -0.12012333422899246215820312500000, 0.34986743330955505371093750000000, -0.35003650188446044921875000000000, -0.05589250475168228149414062500000, 0.45634779334068298339843750000000, -0.33595219254493713378906250000000, -0.11753848195075988769531250000000, -0.01568663679063320159912109375000, -0.15424963831901550292968750000000, 0.29830962419509887695312500000000, 0.46795928478240966796875000000000, -0.07168619334697723388671875000000, -0.09584669023752212524414062500000, 0.32894036173820495605468750000000, -0.02219848334789276123046875000000, -0.18733094632625579833984375000000, 0.20969393849372863769531250000000, -0.13813585042953491210937500000000, 0.31018844246864318847656250000000, 0.06525894254446029663085937500000, -0.06540688872337341308593750000000, 0.39915367960929870605468750000000, -0.01078221574425697326660156250000, 0.34351813793182373046875000000000, -0.00904640275985002517700195312500, 0.02987829595804214477539062500000, 0.11509918421506881713867187500000, 0.34130841493606567382812500000000, 0.21479474008083343505859375000000, 0.13730923831462860107421875000000, 0.07327043265104293823242187500000, -0.02264009974896907806396484375000, -0.37853723764419555664062500000000, -0.04210732132196426391601562500000, -0.02105275355279445648193359375000, 0.08379586040973663330078125000000, 0.35258597135543823242187500000000, 0.27095022797584533691406250000000, 0.07316013425588607788085937500000, 0.34328037500381469726562500000000, 0.05330357328057289123535156250000, 0.19477564096450805664062500000000, 0.05801646783947944641113281250000, -0.25191605091094970703125000000000, 0.11331827193498611450195312500000, -0.26060882210731506347656250000000, 0.33195057511329650878906250000000, -0.25625890493392944335937500000000, -0.13843399286270141601562500000000, -0.18081179261207580566406250000000, -0.08610796183347702026367187500000, 0.23939739167690277099609375000000, -0.13632947206497192382812500000000, -0.18212541937828063964843750000000, 0.15154297649860382080078125000000, 0.25872552394866943359375000000000, 0.12772677838802337646484375000000, -0.07639548182487487792968750000000, 0.26831221580505371093750000000000, 0.00483242794871330261230468750000, 0.26685920357704162597656250000000, 0.39306083321571350097656250000000, 0.37229669094085693359375000000000, -0.15430665016174316406250000000000, -0.07494869083166122436523437500000, 0.29759004712104797363281250000000, -0.26738870143890380859375000000000, -0.01383256912231445312500000000000, 0.27238741517066955566406250000000, 0.01313129160553216934204101562500, 0.12147609144449234008789062500000, 0.19651299715042114257812500000000, 0.00122708757407963275909423828125, -0.23311790823936462402343750000000, 0.00519537692889571189880371093750, 0.27303132414817810058593750000000, 0.15334488451480865478515625000000, -0.11096033453941345214843750000000, -0.23146934807300567626953125000000, 0.39017659425735473632812500000000, -0.18512284755706787109375000000000, 0.23771935701370239257812500000000, 0.33809432387351989746093750000000, 0.24473378062248229980468750000000, -0.36783033609390258789062500000000, 0.13401232659816741943359375000000, 0.34709602594375610351562500000000, -0.24458521604537963867187500000000, 0.36621761322021484375000000000000, -0.19869729876518249511718750000000, -0.24555744230747222900390625000000, -0.24113570153713226318359375000000, 0.08661068230867385864257812500000, -0.09676715731620788574218750000000, -0.31296852231025695800781250000000, -0.18920928239822387695312500000000, 0.02083423733711242675781250000000, 0.01309750135987997055053710937500, -0.21830815076828002929687500000000, -0.08066596835851669311523437500000, -0.11714795976877212524414062500000, 0.21533283591270446777343750000000, -0.00155513756908476352691650390625, 0.24340759217739105224609375000000, -0.10661446303129196166992187500000, -0.30517449975013732910156250000000, -0.28945603966712951660156250000000, -0.01860913820564746856689453125000, 0.26585885882377624511718750000000, 0.17196887731552124023437500000000, -0.18482159078121185302734375000000, 0.37603777647018432617187500000000, 0.36101725697517395019531250000000, -0.33038592338562011718750000000000, 0.02480259537696838378906250000000, -0.05979663133621215820312500000000, 0.09581414610147476196289062500000, 0.22552190721035003662109375000000, 0.14460842311382293701171875000000, -0.12810540199279785156250000000000, -0.05296843871474266052246093750000, -0.07573684304952621459960937500000, 0.24614940583705902099609375000000, -0.10529679805040359497070312500000, 0.08132504671812057495117187500000, 0.26798021793365478515625000000000, -0.07112518697977066040039062500000, -0.03402304276823997497558593750000, 0.09489579498767852783203125000000, -0.24122197926044464111328125000000, 0.31215810775756835937500000000000, 0.10656872391700744628906250000000, 0.21535001695156097412109375000000, 0.10813692957162857055664062500000, 0.05678030103445053100585937500000, 0.08865237981081008911132812500000, 0.25876322388648986816406250000000, -0.27927178144454956054687500000000, 0.10277996212244033813476562500000, 0.17276398837566375732421875000000, 0.22910127043724060058593750000000, 0.16409212350845336914062500000000, 0.02158138155937194824218750000000, -0.07025163620710372924804687500000, 0.07086902111768722534179687500000, 0.22970817983150482177734375000000, 0.58745628595352172851562500000000, -0.22399693727493286132812500000000, -0.36312043666839599609375000000000, 0.19189354777336120605468750000000, -0.00023988475732039660215377807617, -0.20318734645843505859375000000000, -0.30162459611892700195312500000000, -0.05223982036113739013671875000000, 0.12171838432550430297851562500000, -0.37440645694732666015625000000000, -0.12175673991441726684570312500000, -0.23556685447692871093750000000000, 0.03910420089960098266601562500000, -0.32061529159545898437500000000000, -0.20172499120235443115234375000000, -0.13796481490135192871093750000000, -0.14249299466609954833984375000000, -0.07239975780248641967773437500000, -0.06322471052408218383789062500000, -0.02872058190405368804931640625000, 0.19949170947074890136718750000000, -0.05294142663478851318359375000000, 0.01332370284944772720336914062500, -0.11240924149751663208007812500000, -0.18862384557723999023437500000000, -0.25555416941642761230468750000000, 0.19464272260665893554687500000000, 0.05570972338318824768066406250000, -0.16460926830768585205078125000000, -0.16257096827030181884765625000000, 0.01020717341452836990356445312500, -0.40295934677124023437500000000000, 0.17032866179943084716796875000000, -0.24630503356456756591796875000000, -0.03930952772498130798339843750000, 0.22103270888328552246093750000000, 0.06599078327417373657226562500000, 0.03662057220935821533203125000000, -0.34419754147529602050781250000000, -0.02663555555045604705810546875000, 0.37970745563507080078125000000000, -0.17182704806327819824218750000000, -0.26444241404533386230468750000000, 0.10428215563297271728515625000000, -0.23185926675796508789062500000000, -0.08242780715227127075195312500000, 0.28705558180809020996093750000000, 0.08423316478729248046875000000000, -0.21671047806739807128906250000000, -0.15476658940315246582031250000000, -0.07595717906951904296875000000000, -0.12862929701805114746093750000000, 0.02769804559648036956787109375000, 0.22524206340312957763671875000000, 0.01246382668614387512207031250000, 0.33665961027145385742187500000000, 0.10681109130382537841796875000000, 0.24549604952335357666015625000000, 0.47007814049720764160156250000000, -0.26375451683998107910156250000000, 0.08542081713676452636718750000000, 0.27241665124893188476562500000000, -0.10732552409172058105468750000000, 0.04908343777060508728027343750000, 0.09296545386314392089843750000000, 0.17966853082180023193359375000000, 0.01322232093662023544311523437500, -0.14456827938556671142578125000000, 0.02025119215250015258789062500000, -0.09199472516775131225585937500000, 0.09486453980207443237304687500000, 0.00705128535628318786621093750000, -0.19889372587203979492187500000000, -0.48437690734863281250000000000000, -0.01304091885685920715332031250000, 0.03456753864884376525878906250000, -0.24490232765674591064453125000000, -0.12558078765869140625000000000000, 0.12996794283390045166015625000000, -0.02087553963065147399902343750000, 0.27958351373672485351562500000000, -0.44938316941261291503906250000000, 0.01301147695630788803100585937500, 0.30219429731369018554687500000000, 0.12813550233840942382812500000000, -0.26145491003990173339843750000000, -0.01671303994953632354736328125000, -0.11905791610479354858398437500000, };

 static const DTYPE w25[32]={0.95307952165603637695312500000000, 0.93517726659774780273437500000000, 1.01098728179931640625000000000000, 0.99653553962707519531250000000000, 1.00920832157135009765625000000000, 0.98631674051284790039062500000000, 1.02142524719238281250000000000000, 0.95038658380508422851562500000000, 1.06255066394805908203125000000000, 1.02855873107910156250000000000000, 0.99433702230453491210937500000000, 0.97224688529968261718750000000000, 0.93782448768615722656250000000000, 1.02263522148132324218750000000000, 1.02344393730163574218750000000000, 1.04560494422912597656250000000000, 1.02777314186096191406250000000000, 0.97710919380187988281250000000000, 1.00074625015258789062500000000000, 1.01531004905700683593750000000000, 0.99795854091644287109375000000000, 1.06573295593261718750000000000000, 0.96278065443038940429687500000000, 1.05253744125366210937500000000000, 1.07292377948760986328125000000000, 0.97611862421035766601562500000000, 1.01007854938507080078125000000000, 0.96592831611633300781250000000000, 1.00436103343963623046875000000000, 1.01428151130676269531250000000000, 0.99175506830215454101562500000000, 1.00176477432250976562500000000000, };

 static const DTYPE w26[32]={0.10244678705930709838867187500000, -0.04283189028501510620117187500000, 0.03519314900040626525878906250000, 0.01408674474805593490600585937500, 0.04584089666604995727539062500000, 0.01477165613323450088500976562500, -0.16197943687438964843750000000000, -0.08284742385149002075195312500000, 0.00614908011630177497863769531250, 0.16647379100322723388671875000000, -0.09064816683530807495117187500000, 0.00721682468429207801818847656250, -0.11223299801349639892578125000000, 0.02294727414846420288085937500000, -0.12251571565866470336914062500000, -0.16711652278900146484375000000000, -0.08485947549343109130859375000000, -0.06930741667747497558593750000000, 0.04828655347228050231933593750000, -0.12187664210796356201171875000000, -0.02956986799836158752441406250000, 0.12901233136653900146484375000000, 0.11399254202842712402343750000000, 0.06813456863164901733398437500000, -0.06089413911104202270507812500000, -0.08830326795578002929687500000000, 0.00292488490231335163116455078125, 0.01440612412989139556884765625000, 0.08993726968765258789062500000000, 0.06423623859882354736328125000000, -0.02731961570680141448974609375000, -0.02938582189381122589111328125000, };

 static const DTYPE w27[32]={0.02640594169497489929199218750000, -0.02313206158578395843505859375000, 0.16803152859210968017578125000000, -0.01480484753847122192382812500000, -0.11760294437408447265625000000000, -0.00245560053735971450805664062500, -0.01284534670412540435791015625000, -0.12490516155958175659179687500000, 0.10197023302316665649414062500000, 0.12099631130695343017578125000000, 0.15514113008975982666015625000000, -0.08527071028947830200195312500000, 0.00662469537928700447082519531250, 0.15330858528614044189453125000000, -0.03368749096989631652832031250000, 0.23416963219642639160156250000000, 0.16822834312915802001953125000000, -0.09171471744775772094726562500000, 0.10972316563129425048828125000000, 0.02447356656193733215332031250000, 0.16807611286640167236328125000000, -0.08590237051248550415039062500000, -0.16222980618476867675781250000000, -0.17090946435928344726562500000000, 0.06389394402503967285156250000000, 0.09548400342464447021484375000000, 0.05051143094897270202636718750000, 0.21898163855075836181640625000000, 0.09385634958744049072265625000000, -0.21969969570636749267578125000000, 0.20818392932415008544921875000000, -0.03890033438801765441894531250000, };

 static const DTYPE w28[32]={0.04720528796315193176269531250000, 0.07792231440544128417968750000000, 0.03146260976791381835937500000000, 0.06732372194528579711914062500000, 0.06707794964313507080078125000000, 0.06968630105257034301757812500000, 0.04473232850432395935058593750000, 0.05155039951205253601074218750000, 0.07574675232172012329101562500000, 0.08516504615545272827148437500000, 0.09223755449056625366210937500000, 0.06263762712478637695312500000000, 0.05576354637742042541503906250000, 0.06198636442422866821289062500000, 0.04013635218143463134765625000000, 0.06905176490545272827148437500000, 0.05473222211003303527832031250000, 0.03901765123009681701660156250000, 0.07016307115554809570312500000000, 0.04491101950407028198242187500000, 0.06112743541598320007324218750000, 0.08709017932415008544921875000000, 0.05504727736115455627441406250000, 0.07849664986133575439453125000000, 0.07358717918395996093750000000000, 0.02885098755359649658203125000000, 0.05598568171262741088867187500000, 0.10221600532531738281250000000000, 0.06887997686862945556640625000000, 0.05468862503767013549804687500000, 0.09976645559072494506835937500000, 0.09651080518960952758789062500000, };

